0.145928
-0.003766
0.024590
0.167043
-0.011001
0.184037
0.040299
-0.001421
0.134926
-0.000918
-0.023565
0.049012
0.105299
-0.113454
0.101967
0.173315
0.035369
0.083529
0.064163
-0.119862
-0.147041
0.144266
0.085093
0.069736
-0.168083
-0.113749
0.124152
-0.062336
0.084786
-0.011287
-0.092552
-0.033781
0.003279
-0.086326
0.020297
0.137833
-0.082304
-0.018848
0.086507
-0.101086
0.142255
0.057808
-0.135808
-0.167035
-0.163071
0.169473
-0.160808
-0.171770
-0.115440
-0.124861
0.029478
-0.087050
0.012181
0.153380
0.149383
-0.120320
-0.041987
-0.083714
0.137620
0.164426
-0.005783
0.081594
-0.092211
0.014356
-0.030762
0.104701
-0.177653
-0.044825
-0.175597
-0.024575
0.020034
-0.051172
0.130478
-0.160297
0.033930
-0.015718
-0.020768
-0.082166
-0.009563
-0.151857
-0.129848
-0.112910
-0.158922
0.112037
0.069184
0.082748
-0.120853
-0.044477
0.131232
0.145071
-0.033652
-0.131715
0.043916
-0.175426
-0.087768
-0.036856
-0.166660
-0.000282
-0.165428
0.051483
-0.145268
-0.022539
0.182218
0.149924
-0.157534
-0.111842
0.041211
-0.111164
-0.012239
0.168088
0.137831
-0.092596
-0.113068
-0.149474
-0.035403
0.081061
0.161769
-0.172562
-0.186868
0.042400
-0.027452
0.074283
0.038867
0.105123
0.120902
0.102182
-0.135844
-0.106119
-0.085339
-0.074794
0.153864
0.092210
0.072486
0.109243
-0.004461
0.121182
0.049064
0.008574
-0.040098
0.185488
-0.023205
-0.173045
0.164364
0.040204
-0.123437
-0.028945
0.004740
-0.102928
0.050357
0.122936
-0.016630
0.080986
0.064988
0.145277
-0.148198
0.172177
-0.105288
-0.076958
-0.018752
-0.041732
-0.085083
0.146754
-0.068792
0.037551
-0.003764
-0.091389
0.118274
-0.085760
0.114624
0.063898
-0.021099
0.054964
-0.121993
-0.028412
-0.166869
0.150263
-0.041198
-0.096443
-0.111012
0.097703
0.043352
0.192346
-0.115561
-0.041825
0.190052
-0.114414
-0.073847
-0.149494
-0.026154
0.032987
-0.066813
-0.148075
-0.118976
0.104000
-0.066980
0.009753
0.189133
0.149478
-0.106796
0.068337
-0.010411
-0.163541
-0.069064
0.068014
0.033296
0.080505
-0.095755
-0.066519
0.159436
0.082806
-0.031395
-0.180114
0.123677
-0.118281
-0.092369
0.156401
