-0.033453
0.087592
0.009961
0.109534
0.075857
-0.101041
-0.112073
-0.004725
0.006957
-0.000282
-0.000045
0.008844
0.020880
-0.077266
0.024159
0.003301
-0.014430
0.088600
0.007922
-0.055890
0.040504
0.016972
-0.039111
-0.105976
0.011254
-0.103484
-0.098413
0.056586
-0.020523
-0.099028
-0.061962
-0.082120
0.097268
-0.010958
0.111977
-0.019356
-0.096133
0.009020
0.086597
-0.042591
-0.073133
-0.117465
0.077182
0.013837
0.020097
0.043617
-0.039335
-0.105783
0.021886
-0.037444
0.001634
0.041524
0.018975
0.107795
-0.079332
-0.103918
-0.061300
-0.114878
0.014983
-0.005004
0.027100
0.060873
0.034211
0.011207
-0.112563
0.032455
0.040246
0.028854
0.005218
-0.019274
0.064535
0.079145
0.076370
-0.058273
-0.115512
0.087993
0.039455
-0.046063
0.048908
-0.044532
0.008428
-0.057596
0.020812
0.011507
-0.020517
-0.080495
-0.068105
0.074681
-0.063470
0.066155
0.080089
0.094214
-0.047125
0.008794
-0.105757
-0.117752
-0.087287
0.022036
-0.023084
0.111270
-0.011138
-0.058029
0.081297
-0.031885
0.013668
-0.027969
-0.025590
-0.050560
0.032419
0.062309
-0.117089
-0.045722
0.018310
0.055686
0.026106
-0.096708
-0.021150
0.021430
0.008121
0.030327
0.098715
-0.023145
0.009016
0.079682
0.027668
-0.002253
0.077688
0.031239
0.032682
0.110127
-0.095705
0.016302
0.041449
0.062648
0.023297
0.042249
0.084307
0.112833
-0.025421
-0.013812
0.038342
0.107242
-0.003133
-0.010139
-0.114094
-0.076594
-0.025845
0.067408
-0.059132
-0.032394
0.085087
0.047239
-0.100423
-0.065769
-0.037103
0.061272
0.006989
-0.046206
-0.056810
-0.007735
0.004140
-0.071707
0.104186
0.107733
0.038874
-0.076001
-0.017210
0.103835
-0.020215
0.086634
-0.060636
-0.008568
-0.053551
0.086526
-0.115235
0.110674
-0.075966
0.045919
-0.077704
-0.050520
0.012403
-0.049954
0.010149
0.015262
-0.117543
-0.079522
0.096699
-0.116956
0.077186
0.028267
-0.070212
0.073078
0.033441
-0.067764
0.047738
0.082991
0.042742
0.007417
-0.109976
0.105940
0.087327
-0.052238
0.022353
-0.000604
-0.072446
-0.091025
-0.070191
0.087779
0.033874
-0.074806
-0.072465
-0.008966
0.105575
-0.089597
-0.094005
-0.046468
0.018866
-0.011594
-0.025391
-0.057690
-0.095273
0.066410
0.053318
-0.039214
0.035037
0.116748
-0.099229
-0.059509
0.015524
0.024843
-0.024865
0.020856
0.059683
0.038921
0.110476
0.074056
0.065844
-0.069792
0.058587
0.105525
-0.044945
0.028391
-0.059203
0.071721
0.004034
-0.103262
-0.072270
0.068850
-0.004443
0.015613
0.089434
0.009707
-0.035020
-0.077678
0.065300
-0.065694
-0.007804
-0.036100
-0.046709
-0.039926
-0.018220
0.087548
0.052540
-0.052818
-0.039269
0.105273
-0.081978
0.038629
-0.093000
0.097100
0.015144
-0.030142
-0.005611
0.100517
-0.057934
-0.080738
-0.030097
-0.020482
-0.063166
-0.069639
-0.064016
0.094578
-0.047016
0.061337
-0.104259
0.045605
-0.076444
0.034803
-0.041326
0.053584
-0.025140
-0.112488
-0.062656
0.005044
0.101725
0.115569
-0.049828
-0.100933
-0.092948
0.054061
-0.071836
0.046912
-0.061590
0.071856
0.041027
0.098398
0.044459
-0.071497
-0.089292
-0.041051
-0.087230
-0.073047
-0.048806
0.065844
-0.081452
-0.056613
-0.069290
-0.093314
0.060134
-0.100576
-0.022373
-0.082372
0.032216
0.008009
0.052323
0.023863
-0.064722
0.002360
-0.089627
0.092003
-0.079488
0.054046
0.033730
0.098500
-0.076274
-0.041088
0.078204
0.034793
-0.106385
-0.096620
-0.060154
-0.019800
-0.000678
-0.037959
-0.092586
0.004703
-0.110062
-0.041635
0.020430
0.086228
-0.056574
-0.019460
0.099254
0.082387
0.106338
-0.095690
-0.113331
-0.012460
0.013645
-0.105721
0.007618
-0.027621
-0.003402
0.018352
-0.039099
-0.047756
0.055897
-0.068839
0.070353
0.038984
-0.025367
-0.104294
-0.099129
-0.005577
0.052797
-0.075506
0.053650
-0.109689
0.008052
0.008125
0.032951
-0.065884
-0.021907
0.008825
-0.038220
0.081907
0.058528
-0.058732
-0.050953
-0.096007
0.092404
-0.016097
-0.079404
0.103422
0.070496
-0.028082
-0.013364
-0.115941
-0.007270
0.022912
0.037702
-0.016987
-0.053546
0.058363
0.110384
-0.021225
0.031783
0.016345
0.091632
0.100792
0.070682
0.084169
-0.033444
-0.058291
-0.049586
-0.007626
0.036552
0.039507
-0.062382
0.077025
-0.091154
-0.094334
-0.072367
0.071554
0.073025
0.114809
-0.094942
-0.057123
-0.015116
0.025566
-0.108423
-0.028732
-0.062372
-0.024850
0.106054
-0.018269
0.107386
0.054263
-0.094528
0.011966
-0.073097
0.006767
-0.093718
0.106266
-0.094862
0.059870
0.071575
-0.030993
0.019777
-0.112504
0.033858
-0.108867
0.070171
0.064648
0.026591
0.076095
0.045124
0.110847
0.105020
0.007049
0.059235
-0.006695
-0.036250
0.017204
-0.028262
0.117719
-0.094714
0.045899
-0.082565
0.094601
0.050502
-0.007167
0.100092
-0.024283
0.095651
-0.103470
-0.088404
0.100039
-0.103893
0.006115
-0.053623
-0.065610
-0.028811
-0.036464
-0.101972
0.106407
-0.108516
0.011096
0.025835
-0.063380
0.100395
0.011733
0.075219
-0.094377
-0.068341
0.112027
-0.108865
0.054155
-0.007481
-0.096904
0.085961
0.022275
0.029063
0.016476
0.099111
0.007055
0.043295
-0.099838
0.033974
0.034537
-0.017336
0.067970
0.102374
0.032765
-0.076804
-0.015579
0.057086
0.109959
0.034257
-0.079628
0.115497
-0.030774
0.103593
0.058821
0.081303
0.016050
-0.072049
-0.053292
0.112632
0.019685
-0.048588
-0.100295
-0.101993
0.033863
0.045148
-0.065274
-0.026985
-0.113481
0.059272
0.058254
-0.038362
-0.096778
0.014444
0.082575
-0.103505
0.110612
0.018456
-0.082653
-0.103933
0.095939
0.060424
-0.035912
0.077823
0.065803
0.044777
-0.091580
0.069229
0.099184
0.094435
0.001599
-0.032212
0.105645
0.084792
-0.094658
-0.051075
-0.059544
0.058494
0.106795
-0.029617
0.109810
-0.072726
0.064902
0.113300
0.116775
0.072055
0.109117
0.093052
-0.039662
0.078899
-0.051438
-0.018083
0.095651
-0.014078
-0.107537
0.008921
-0.027349
0.091580
-0.067426
0.115834
0.042034
0.021952
-0.010235
-0.017913
-0.032147
-0.009689
0.090336
-0.039154
0.034096
-0.044570
-0.002052
0.116665
0.021184
0.108254
0.111623
0.047365
-0.027753
-0.031222
0.062722
0.103000
-0.039524
-0.056954
-0.037714
0.039700
0.026674
-0.054871
0.061662
0.099009
-0.101165
0.110812
0.090830
0.063672
-0.085053
0.052765
0.005927
-0.058664
0.070976
-0.009010
0.037690
0.087535
0.037644
0.091374
-0.023614
-0.036467
-0.000339
0.106709
-0.103657
-0.113993
-0.112738
-0.056040
0.116058
-0.109979
0.080883
0.006151
0.044593
0.029128
0.089523
0.068539
-0.033344
0.033595
-0.012282
-0.043240
-0.061746
0.044153
-0.065581
-0.071629
-0.011980
-0.117805
0.060075
0.083016
-0.017707
-0.005526
0.031800
-0.027147
-0.021227
0.106028
0.041472
-0.116958
0.047900
0.042043
0.089424
0.099071
0.073992
-0.018020
0.029388
0.043417
-0.105553
-0.103584
-0.050457
-0.111403
-0.059784
0.056939
-0.063801
0.103377
0.012059
-0.089851
0.038886
-0.050843
-0.019695
0.073975
-0.063073
0.086993
0.074377
0.017655
-0.003969
-0.011756
0.010133
-0.024196
-0.091856
-0.023448
0.023347
0.023341
0.101203
0.048837
0.079346
-0.080026
-0.111587
0.023876
0.085537
0.110057
-0.030503
0.092570
0.117687
0.015923
0.099398
-0.088981
-0.003133
-0.053056
-0.112934
0.056337
0.087813
0.044768
0.093098
-0.066607
-0.074133
-0.046356
-0.104925
0.061752
-0.047118
0.049387
0.106025
-0.031434
0.104021
0.028036
0.011285
-0.096259
0.055350
-0.068433
-0.011960
0.110635
0.070311
-0.047218
0.080339
-0.062503
0.012811
-0.066979
0.094766
0.111547
-0.117700
0.049243
-0.098167
0.017599
-0.065509
-0.114644
-0.023130
0.112040
0.038308
0.037734
-0.028945
0.050161
0.033665
-0.083235
0.037471
0.033354
-0.100915
0.064188
-0.102117
-0.080999
0.010511
0.100502
-0.061092
0.113322
0.112179
-0.025853
-0.087448
-0.071384
-0.081441
0.103554
0.111406
-0.109084
0.013374
0.088322
0.062367
0.085506
-0.016837
0.005882
0.094286
-0.048753
-0.004603
-0.026653
0.069515
-0.037292
-0.036626
-0.005314
0.101580
-0.024799
0.015920
0.098123
-0.018823
0.018358
-0.036030
-0.004463
-0.101863
0.102215
0.021046
-0.083415
-0.062918
0.104700
-0.102082
0.101927
-0.076728
0.061409
0.094800
0.001026
0.018801
-0.100516
0.041904
0.062995
-0.076916
-0.016451
0.053121
-0.079515
-0.049738
-0.037662
-0.064330
0.016581
0.042368
0.035034
-0.106948
0.066521
-0.102738
0.005763
-0.016140
0.059862
-0.074387
-0.038576
0.083013
-0.025374
0.044410
-0.006224
-0.063981
-0.089220
-0.100143
-0.069661
-0.064134
0.055219
-0.025892
0.025211
-0.022206
-0.085143
-0.064092
0.074044
0.038603
-0.062366
0.048726
-0.098711
-0.043291
0.027130
0.043150
0.097676
-0.094102
-0.050683
-0.081027
0.003183
-0.047329
-0.004833
-0.051368
-0.114270
0.065700
-0.083566
0.095500
0.057948
0.085502
-0.023744
0.117006
-0.043900
-0.024070
-0.112054
0.026468
0.113204
0.006417
-0.058648
0.107485
0.005750
0.038508
-0.039520
0.088812
-0.107361
0.081682
0.055029
0.109311
-0.035116
-0.030623
-0.038787
-0.077012
0.030189
0.014134
0.112728
-0.113151
0.047918
0.053388
0.052538
0.075433
-0.029759
-0.068680
0.046819
0.117073
-0.112108
0.013806
-0.031767
-0.077240
0.067614
-0.030114
-0.025940
-0.019652
-0.095481
-0.071596
0.090269
-0.005916
0.017939
-0.047251
0.023570
0.028257
-0.052504
0.082886
0.044573
-0.101966
-0.096984
0.109164
-0.102506
-0.070161
0.016139
0.005052
0.108014
0.002909
0.042719
-0.082549
-0.063518
-0.048179
-0.039988
-0.112411
-0.014071
-0.090716
-0.072475
-0.044146
-0.026893
-0.087786
-0.015165
0.045780
0.019229
-0.063959
-0.071222
0.048717
0.051567
0.001777
0.080503
-0.054845
0.097135
-0.074269
0.054139
-0.025117
0.071270
-0.067935
0.043584
0.052417
0.061116
0.054693
0.044616
0.038474
0.092089
0.114983
-0.014571
-0.089554
-0.015311
0.088668
0.104261
0.089126
0.082730
-0.093649
0.048517
-0.061315
-0.088436
0.037810
-0.042941
0.050818
-0.054547
0.011434
0.091296
0.115885
-0.100634
-0.009391
0.098009
0.109025
0.013955
-0.042078
-0.100278
0.078048
-0.044361
-0.012046
0.044685
0.040922
-0.104790
-0.031330
-0.086099
0.009736
0.052992
0.063114
-0.087864
-0.110429
0.020223
-0.065957
-0.064053
0.004079
0.093821
-0.081919
0.103246
-0.081261
0.056452
-0.098542
0.072251
0.099641
-0.034427
-0.092988
-0.111410
0.066193
-0.019602
0.043285
-0.117833
0.006482
0.112130
0.008696
-0.039418
-0.075952
0.109976
0.103375
0.014628
-0.034632
0.021514
-0.012427
0.086712
0.018629
0.003075
-0.089538
0.010504
0.065300
0.117601
-0.076293
-0.047244
0.055143
-0.023378
-0.014312
0.091431
0.072669
-0.115809
-0.046422
0.015816
0.013266
-0.037935
-0.004478
0.101932
-0.064920
0.101024
-0.064343
0.014564
0.043516
0.010605
-0.028786
0.104271
-0.090873
-0.090382
0.041623
0.047916
-0.044235
0.026866
0.101240
0.026553
-0.073109
0.102152
-0.058167
-0.017489
-0.020020
-0.049596
-0.087361
0.049660
-0.038137
-0.069364
0.032177
-0.114509
0.110364
-0.108696
-0.091382
0.013614
-0.092596
0.015735
-0.026312
-0.072597
0.018217
-0.051484
0.041665
0.014631
-0.093586
0.025761
-0.020196
-0.055080
-0.007660
0.091607
-0.017714
-0.008906
0.023275
0.023077
0.116760
-0.031198
0.049887
-0.054145
0.037298
-0.057246
-0.073422
-0.085189
-0.114418
0.042994
-0.062027
0.006037
-0.091319
-0.054735
-0.085133
0.056102
0.017474
-0.031607
-0.068029
0.017779
-0.012628
-0.067937
-0.038333
-0.105199
-0.087727
0.029174
0.066889
0.063747
-0.039915
0.040184
0.063618
0.044244
0.100706
-0.073119
-0.001937
0.003297
-0.029049
-0.020128
-0.107180
0.077292
-0.001670
0.098263
0.014731
