-0.004479
0.048780
-0.075189
0.067535
-0.018742
0.082805
-0.005568
-0.079852
-0.020456
0.062742
-0.078492
0.043107
0.015031
0.057386
-0.039558
0.074084
0.047426
0.048844
0.011599
-0.076706
-0.066570
0.049476
-0.052163
-0.077496
-0.010855
-0.012511
0.041207
0.030644
-0.038235
0.023482
0.048566
-0.062172
-0.082192
-0.057333
0.042591
0.023463
-0.019662
0.067475
0.046138
0.000136
0.020824
0.065598
0.052255
0.060252
-0.023304
-0.020739
-0.009440
-0.057237
0.054015
-0.029065
0.006962
0.013159
0.030005
0.013893
0.007446
-0.043436
-0.082018
-0.030743
0.083012
-0.073743
-0.068038
-0.068442
0.031079
0.037328
-0.016341
0.052488
-0.038028
0.019590
-0.036017
-0.020206
-0.038756
0.055976
-0.006876
0.072807
-0.039014
-0.041485
-0.045340
-0.032155
-0.020655
0.054569
-0.044163
0.070726
0.011772
0.027516
0.059577
0.011182
-0.064819
-0.031290
-0.009870
0.083150
0.057720
0.020618
-0.059549
-0.030637
-0.046067
-0.076269
-0.062134
0.050521
-0.070614
0.010424
0.055304
0.021345
0.027124
-0.023914
0.028469
-0.019341
-0.051537
-0.043090
-0.015084
0.065330
-0.082850
0.050664
0.046431
-0.034804
0.003037
-0.081149
-0.017875
0.064952
0.017593
0.010353
-0.077627
0.001004
-0.075048
-0.023502
-0.065752
-0.061724
-0.055869
0.001746
-0.002819
-0.034088
-0.010226
0.082772
-0.050371
0.033324
-0.025104
-0.057610
0.011538
-0.059277
-0.016777
-0.074974
-0.020848
0.048714
-0.011721
0.014261
-0.007705
0.069879
-0.002646
-0.012880
-0.048558
-0.070967
-0.074431
0.079761
0.045944
0.040468
-0.025845
0.007048
0.075395
-0.026900
-0.029850
-0.024119
-0.061215
-0.045798
0.057728
-0.042597
-0.078861
-0.005880
0.059445
-0.047824
-0.061407
-0.000130
-0.019809
-0.002417
0.002538
-0.028227
0.030264
-0.058061
0.004386
0.005851
-0.077294
-0.044144
0.032041
-0.072669
0.070846
0.042886
-0.004191
-0.069773
0.050997
0.047151
-0.065561
-0.069492
0.082744
0.002575
0.035007
-0.023514
-0.031376
-0.051444
0.023206
-0.075699
0.047864
0.043274
-0.024058
-0.016262
-0.056392
-0.037421
-0.031158
-0.031561
-0.078429
-0.016994
0.029538
0.071775
0.049685
0.023121
0.051020
0.029822
0.080898
0.051476
-0.067008
-0.059224
-0.000359
-0.043620
0.024223
0.037507
-0.042327
0.013648
0.004670
-0.077244
0.007967
-0.028324
-0.065597
-0.002579
0.048168
0.034422
0.020694
0.017952
-0.049176
-0.051310
0.031596
0.062153
0.004632
-0.016369
0.065730
0.006537
-0.081106
-0.080822
0.042919
-0.036186
0.042633
-0.053827
-0.039252
-0.013910
-0.067451
-0.002581
-0.069911
0.019508
0.078125
0.064078
0.082801
-0.015637
0.017966
0.024639
-0.049059
-0.053320
0.022817
-0.050613
-0.020764
0.055516
0.044175
0.054189
-0.063344
-0.056463
-0.041166
-0.009804
0.010478
-0.000051
-0.019105
0.010639
-0.067957
0.076472
0.022785
-0.059285
-0.014323
-0.082794
-0.082725
0.058755
-0.041127
0.048918
-0.066586
-0.072461
-0.080500
0.006965
0.046143
-0.025463
-0.061932
0.042327
0.080772
-0.014299
-0.038816
0.075754
0.025320
0.081775
0.046870
0.064829
0.077999
0.054336
-0.023895
-0.041457
0.014396
-0.007332
-0.077918
-0.031261
0.005712
0.060304
-0.072521
-0.026955
-0.022328
0.073427
0.030625
0.040166
-0.069367
-0.027562
0.045268
0.054654
0.055120
0.047064
-0.028865
-0.063857
0.044227
0.015430
-0.061080
-0.066754
-0.016260
0.044552
0.048804
-0.036056
0.026854
-0.077118
0.017265
-0.024604
0.074000
0.011949
-0.006066
0.063555
0.018805
-0.012314
0.054365
0.014839
0.055950
-0.032508
0.081372
0.066445
0.035218
-0.031591
0.019426
-0.047562
0.068250
-0.071180
0.082659
-0.057306
0.060474
-0.039490
-0.007328
0.025983
0.050416
0.007922
-0.052039
-0.057523
0.024478
-0.061505
0.031656
-0.009242
-0.023745
0.051495
-0.068194
0.002003
-0.073852
-0.063762
-0.001097
-0.057337
-0.071748
-0.036250
0.079643
0.004430
-0.015274
-0.025094
-0.080807
0.059130
-0.029088
-0.083307
-0.023714
0.009837
0.071177
0.063419
-0.013535
0.042485
0.034912
-0.047063
-0.065714
0.069538
-0.005703
0.049131
-0.040530
0.016365
0.065945
-0.038117
0.032861
-0.026887
-0.033751
0.076644
-0.016072
0.029739
0.051252
0.003026
0.069564
-0.070172
0.026585
0.043295
0.049904
-0.083260
-0.031428
0.058668
0.056306
-0.057421
0.053739
0.080483
-0.078787
-0.035191
-0.013106
0.057223
0.021017
-0.070149
-0.056757
-0.050937
0.044883
-0.018944
0.077827
-0.010226
-0.003506
0.043710
0.066388
-0.051609
0.071889
-0.051615
-0.051099
-0.055715
0.048485
-0.019791
0.061791
-0.029064
-0.048270
0.005040
-0.007734
-0.029343
0.071289
0.032015
-0.024824
-0.061049
-0.075913
-0.025917
-0.049097
-0.081987
0.071727
-0.049114
-0.034199
0.049871
-0.053835
-0.009696
-0.046428
0.049362
0.069432
-0.062679
-0.040360
-0.072168
-0.078008
-0.063249
0.041380
0.036363
-0.042489
0.060803
0.008968
0.077655
-0.070311
0.057234
0.028014
0.014265
0.041181
0.035244
0.061042
-0.032653
-0.009789
0.008573
0.056825
0.032985
0.062191
0.078608
-0.008558
0.063633
0.051937
-0.073959
-0.044361
0.048344
0.051918
0.046551
-0.046539
0.023676
0.057837
0.077645
0.058690
0.076252
-0.069915
0.028873
0.032334
-0.012270
-0.038963
-0.054213
0.063756
0.051995
0.056494
-0.069992
0.046084
0.044981
-0.080658
0.083100
-0.022389
-0.030541
0.000044
0.081755
-0.009959
0.004944
-0.076762
-0.064833
0.045643
0.028328
-0.010669
0.031242
0.068039
-0.011414
0.056821
-0.080113
-0.068334
-0.040775
-0.021539
0.036134
-0.062820
-0.021137
0.055432
-0.069396
0.077482
0.003296
-0.048679
-0.014790
0.017201
-0.036410
-0.054424
0.052111
0.070434
-0.030338
-0.057918
-0.058523
0.055044
-0.001264
-0.027913
-0.055592
0.003945
0.046681
0.034377
-0.068261
-0.004643
-0.027315
-0.050594
0.033808
-0.029011
0.076042
-0.009326
-0.044810
-0.047826
0.075750
-0.032786
-0.030804
-0.060958
-0.018812
0.074039
0.002548
0.049115
-0.047543
0.060208
0.019630
-0.061807
0.054184
-0.016153
-0.057332
0.063696
-0.077413
-0.051665
-0.074179
0.012631
0.047984
0.034169
-0.078292
0.047801
-0.023620
-0.008904
0.003282
0.052303
0.024439
0.029195
0.082827
-0.062018
0.064731
-0.052736
-0.070346
-0.030599
-0.069561
-0.040138
0.065601
0.035062
-0.023635
0.016265
0.003832
-0.059986
-0.038509
0.076392
-0.020241
-0.078271
-0.019756
0.014616
0.078859
0.007387
-0.015642
0.052842
-0.047047
0.060749
-0.071512
-0.055413
-0.036989
0.040916
0.057288
0.046588
0.044266
0.036283
-0.078343
0.054544
0.015533
0.014509
0.040483
0.000465
0.027695
-0.043367
0.004153
0.031078
0.002168
0.073300
0.008687
0.073737
0.060598
0.032357
-0.070757
0.075837
-0.039789
0.066754
-0.010780
0.069573
0.012495
-0.041907
0.056692
0.006517
-0.055894
0.056771
-0.053304
0.056089
-0.077740
0.067560
-0.021662
0.007553
0.030222
0.018443
-0.073581
0.055566
-0.026084
0.020061
0.066351
-0.071106
0.021546
0.044221
0.076009
0.062275
-0.024276
0.046119
0.008230
0.041381
-0.071860
-0.076350
0.037250
-0.033182
-0.000034
0.059357
-0.005244
0.009667
-0.026182
-0.077576
0.016105
0.038755
0.040144
0.065314
-0.004299
-0.057050
-0.038519
0.040209
-0.037546
-0.006344
0.013092
0.039529
-0.044486
0.031749
0.010450
0.057315
0.046723
0.004328
0.035162
-0.071615
0.071088
-0.064346
-0.058923
0.046228
0.040774
0.036622
-0.064975
-0.080457
-0.065638
-0.010915
-0.042746
-0.035543
-0.079337
0.031645
0.040293
0.020746
-0.011386
0.024759
0.018016
0.004344
-0.068416
0.009410
-0.033767
0.026623
0.028653
-0.030064
0.001579
-0.049600
0.004108
-0.047831
-0.049502
0.080761
0.045776
0.082975
0.006670
0.062737
0.029581
0.069100
-0.021302
-0.082792
-0.070591
0.020772
0.018635
0.033774
-0.032976
0.074758
0.045560
0.004860
-0.033668
0.005775
-0.056136
-0.067157
0.000413
0.069501
0.037075
0.005916
-0.057703
0.021000
-0.033907
-0.057702
-0.047394
-0.053364
0.059735
0.059996
-0.026558
-0.064812
-0.030436
0.004923
0.039247
0.077571
0.039445
0.000050
-0.029670
0.069319
-0.012543
-0.036254
-0.018526
0.027303
0.035646
-0.037052
0.045303
0.075400
0.048915
-0.044438
-0.026734
-0.025110
-0.032243
-0.060630
-0.081287
-0.026642
-0.020632
-0.035973
-0.037848
-0.065370
-0.027361
-0.031483
0.036340
0.009368
0.006196
0.063455
-0.055566
0.075866
0.000876
-0.053475
0.056432
-0.070734
0.009292
0.053742
-0.035453
-0.072195
-0.049515
0.006012
-0.007036
0.026614
0.021594
0.043622
-0.024266
0.047991
0.037834
-0.058194
0.018563
-0.024579
0.063981
-0.042258
0.063726
0.030649
-0.061228
-0.040568
0.049979
0.043728
0.063675
0.068491
-0.002742
-0.012133
-0.003994
-0.070587
0.079475
-0.077250
-0.029176
-0.080729
-0.079695
0.005595
-0.013519
0.069145
-0.043713
-0.006556
-0.061038
-0.030685
-0.025033
-0.032260
0.074756
0.074022
0.014937
-0.030623
0.046208
0.079514
-0.076831
0.026857
-0.053567
-0.052049
0.074592
-0.024067
-0.064884
-0.063710
0.063787
0.067876
-0.073752
0.003191
0.012010
0.039465
-0.080952
0.055932
-0.078222
0.000786
0.028518
0.035470
0.077799
0.061072
0.001734
0.043445
0.041914
-0.022969
0.069927
-0.013599
0.078019
-0.041650
-0.034136
-0.076476
0.032043
-0.000417
-0.051823
0.082106
-0.062021
-0.050284
0.077945
-0.014374
-0.005107
0.024411
0.021956
0.050461
-0.078457
0.073776
0.044655
-0.006136
0.003394
-0.066673
0.050149
0.010443
0.072235
-0.070959
-0.014171
-0.018004
0.081016
-0.040568
-0.077071
0.018181
0.052524
0.040973
0.078248
0.055113
0.069090
-0.067147
-0.038112
-0.040670
0.026435
0.063781
0.041691
-0.066354
0.003196
0.001293
-0.037158
-0.011520
-0.059141
0.015771
0.039609
-0.049428
0.057474
0.048833
-0.026552
0.020841
0.010320
-0.007643
-0.050499
0.026380
0.007781
-0.040861
0.021126
-0.015968
0.042064
0.002461
-0.044932
0.077798
0.082245
0.059412
-0.055967
-0.023487
0.028360
0.011560
0.014605
-0.081847
-0.047307
-0.003504
0.057371
-0.010414
0.060422
0.011966
0.042038
-0.072489
-0.037327
-0.057722
-0.012841
0.074915
0.053648
0.010642
-0.011662
0.023107
0.029445
0.032726
-0.044358
-0.035728
0.006935
-0.042701
-0.038221
0.026520
-0.046993
-0.007469
-0.000884
0.019927
-0.059305
-0.059348
-0.072335
0.060991
-0.062069
0.021907
-0.034338
0.031336
-0.077688
0.034774
-0.070212
0.000470
-0.069016
-0.047493
0.026872
0.019975
0.057003
-0.043657
-0.027632
0.012354
-0.067037
0.064014
-0.020207
-0.062126
-0.013741
-0.034523
-0.076380
-0.066280
0.064579
-0.015092
0.051433
0.074145
0.025392
0.024404
-0.060481
0.024124
-0.017463
-0.031618
-0.067988
0.012738
-0.009995
-0.001685
-0.003423
0.021206
-0.067147
-0.028963
0.069325
0.034911
-0.015849
-0.046547
-0.052401
-0.058129
-0.046039
0.031849
0.044290
0.022472
0.029034
0.063917
-0.010663
-0.039366
0.018702
0.020938
-0.021652
0.065001
-0.046029
-0.048761
0.082234
0.005549
-0.053690
-0.029354
0.062381
0.006881
0.050265
-0.053634
0.048439
-0.034031
0.034744
0.007896
0.040926
0.048126
0.013677
-0.049877
-0.027488
0.072584
-0.049119
-0.000702
0.021262
-0.055838
-0.082999
-0.047713
-0.045964
-0.064332
0.017901
-0.028976
0.042016
0.024302
-0.007517
0.063693
0.080941
0.064781
0.016943
-0.029428
0.048597
0.011386
-0.072858
0.051414
0.033781
0.070677
-0.065428
-0.050922
-0.079679
0.001578
0.045230
0.010413
0.038363
0.047111
-0.076609
-0.021774
-0.037592
-0.079294
0.039660
-0.075330
-0.013292
-0.054207
-0.046113
0.055451
-0.078791
-0.035858
0.004430
0.057147
0.039498
0.082475
0.021137
0.066498
0.045993
0.074421
-0.044487
0.043918
-0.021819
-0.003280
-0.064404
0.017940
0.066673
0.077632
-0.006302
-0.024956
0.062413
0.044307
0.025912
-0.060411
0.075168
0.078422
-0.043314
0.002953
0.083125
0.073068
-0.009152
0.081324
-0.055399
-0.004711
-0.019536
-0.081996
-0.016059
-0.072655
0.029450
-0.077383
0.057337
0.003566
-0.009353
0.043706
0.081200
0.075299
-0.004121
-0.039241
0.077252
0.054312
0.002301
-0.025132
0.006508
0.032222
0.050253
0.053709
0.016793
-0.073033
-0.007376
-0.073403
0.025910
-0.028799
-0.006944
-0.025375
0.047154
-0.021907
0.080984
0.005940
0.045297
-0.081228
-0.034909
-0.012364
0.074367
0.021270
0.019436
-0.040974
-0.028610
-0.000431
0.053107
0.039719
-0.049990
-0.079270
0.062739
-0.025231
0.027729
-0.064122
0.050191
-0.056169
-0.060708
-0.040994
-0.072068
-0.079433
0.068377
-0.061370
0.073757
0.076537
-0.015554
0.007454
0.042051
0.050785
0.078880
-0.050392
-0.034863
-0.005670
0.046790
0.034706
-0.004192
-0.031565
-0.008153
0.082041
0.001845
-0.050467
0.019227
-0.038013
-0.000417
0.021405
0.061847
0.029437
-0.059132
0.046365
0.076408
-0.060376
-0.028428
-0.021868
0.059250
0.047537
0.078441
-0.008565
0.034782
-0.013470
0.005104
0.068442
-0.011093
0.002140
0.064869
-0.027622
-0.042235
-0.051732
0.046959
-0.035892
0.074737
-0.035184
0.029168
0.053540
-0.040138
-0.038889
-0.031749
-0.074493
-0.034479
0.017969
-0.025795
0.004737
-0.014139
0.055156
0.071063
0.010716
-0.072000
-0.051903
0.024986
-0.051586
-0.025320
0.032341
-0.074412
-0.047464
0.049747
-0.081216
0.000431
-0.019026
0.073649
-0.054383
-0.051049
-0.003551
0.081636
0.035684
-0.022205
-0.062215
-0.075120
0.034977
-0.025848
-0.050808
-0.062096
0.061657
0.045828
-0.066817
-0.054183
-0.053399
0.036436
-0.002415
0.074396
0.020777
0.029772
0.079130
0.023019
-0.011171
0.045136
-0.074581
0.033420
-0.050667
0.031484
0.067555
-0.080935
0.047581
0.048830
-0.044753
-0.044774
0.053025
0.026550
-0.080090
0.061795
-0.026266
-0.056452
0.043912
-0.018201
0.072777
-0.015641
-0.012098
0.002422
0.079582
-0.023731
-0.069298
0.002442
0.049927
0.079046
0.067567
-0.015311
0.044136
0.004001
-0.076968
0.046758
-0.061757
0.034705
-0.062975
0.043002
0.067940
0.016656
0.017300
-0.030589
0.064466
-0.028803
0.030915
-0.039791
-0.025471
0.026775
-0.004320
-0.049589
-0.037347
0.023181
-0.032350
0.062361
0.078404
0.046931
0.027155
0.019779
0.017470
-0.068776
-0.017091
-0.005821
-0.014154
-0.064959
-0.005478
0.005836
0.073864
-0.008935
0.027019
-0.009224
0.000720
-0.042749
0.058456
0.040281
0.060060
-0.005130
0.020710
0.069970
-0.041198
-0.035588
0.061956
0.081861
0.010563
0.078220
-0.012005
-0.010276
0.033517
0.017407
0.061768
-0.044861
-0.029543
-0.068233
0.050798
0.055713
0.016978
0.008180
-0.024640
0.003407
0.078515
-0.082192
-0.035690
-0.015054
-0.022831
-0.070472
-0.000831
0.031690
-0.076281
-0.003425
0.009799
0.079072
-0.036166
0.014718
-0.047604
-0.072666
0.018324
0.065965
0.013598
0.049642
0.053359
-0.047539
0.017032
-0.026872
-0.079735
-0.015739
0.003798
-0.068118
-0.078574
0.020374
0.053183
0.024961
0.037866
0.063567
-0.065580
0.039165
-0.015650
0.050648
0.075547
0.008079
0.040529
0.062418
0.051103
-0.013984
0.033934
-0.070866
0.073936
-0.069115
0.049154
0.042400
-0.000270
0.069950
-0.024553
0.009423
0.083099
0.057104
-0.066947
0.034886
-0.040265
-0.059689
-0.002079
-0.045891
-0.003923
-0.081919
0.065772
-0.079556
0.068707
-0.021363
-0.079076
-0.048406
-0.005322
0.056867
0.018812
-0.018011
-0.062179
0.024148
-0.029497
0.033507
0.083231
-0.081992
0.074864
0.037883
0.074271
0.066111
0.071965
-0.019805
0.005035
0.056067
0.033140
-0.059160
-0.013937
0.079150
0.021774
0.053588
-0.037012
0.069255
0.014794
-0.050130
-0.012861
-0.062373
0.026014
0.079002
-0.072605
0.072914
-0.068285
-0.048288
0.004774
0.030448
-0.051329
-0.057269
-0.011670
-0.059114
-0.005873
-0.027325
0.073624
-0.075283
0.010350
0.069278
0.030191
0.020890
0.078093
-0.057062
0.072274
0.055462
-0.010300
0.025632
0.013088
-0.019102
0.004237
-0.049997
-0.021602
0.036106
-0.000603
0.075819
0.071120
0.000753
-0.041736
0.012800
-0.030734
0.028230
-0.048049
-0.045172
0.007593
-0.060961
-0.038744
0.042193
-0.026820
-0.026552
-0.006079
-0.075482
0.070834
-0.004835
-0.043616
0.056059
-0.000883
-0.051501
0.035890
-0.001574
0.016082
-0.077087
0.009235
-0.016682
-0.044670
-0.010392
-0.070688
0.018611
0.042768
-0.064375
-0.042011
0.065864
-0.046433
-0.036725
0.036322
0.080793
-0.038809
0.040921
0.011774
0.072427
0.053417
0.062764
-0.065801
-0.004665
-0.003911
-0.034482
-0.073150
0.009386
-0.036523
0.001630
-0.029100
-0.042993
-0.039583
-0.015613
-0.006762
-0.000908
0.051246
0.077456
0.066925
0.082234
-0.048304
-0.040384
-0.052941
-0.008054
0.019999
-0.025644
-0.060792
0.038618
-0.020059
-0.004178
-0.054116
-0.029183
-0.046670
0.072848
-0.046058
-0.011395
0.008583
-0.011127
-0.059955
-0.041462
-0.054094
0.078550
-0.018604
0.041046
-0.040325
-0.016192
0.006183
0.054784
-0.052718
-0.048532
-0.053786
-0.012296
-0.019305
0.008537
-0.017453
-0.048086
0.075613
-0.069239
0.055202
-0.034467
0.034508
0.043238
0.073213
0.018096
0.067325
-0.029032
0.075897
-0.053470
0.068559
-0.008590
0.007964
-0.022440
-0.069935
-0.078163
0.061302
-0.002133
0.006227
0.079991
0.056457
-0.036735
-0.049790
0.034695
-0.007964
0.052690
0.040990
-0.063796
0.012382
-0.048943
-0.002240
-0.041585
-0.001417
-0.043196
-0.081694
-0.031675
0.058267
-0.030833
-0.013917
-0.068195
-0.008542
-0.019927
0.077841
0.039713
0.076423
-0.021311
0.003459
0.040067
0.021488
-0.078879
0.017001
-0.069461
-0.022291
-0.030887
-0.021868
0.075780
0.006561
0.067131
-0.077124
0.027866
-0.004185
0.021159
-0.067879
-0.036481
0.049676
-0.047894
0.030558
0.004415
-0.028181
-0.005225
0.030540
0.059195
0.053426
0.082677
-0.027381
0.079032
0.030596
0.051486
0.061960
0.041827
-0.079866
-0.021726
0.071277
-0.080065
0.053855
0.040775
-0.050523
-0.031291
-0.030337
-0.040887
-0.045082
-0.006549
-0.063306
-0.034738
-0.011262
-0.050980
-0.053842
-0.076039
0.014569
0.027853
0.069420
0.002742
0.048513
0.082184
0.018763
0.075152
-0.011621
0.025601
-0.032238
-0.068825
-0.057232
0.009977
0.001789
-0.001825
-0.038424
0.078216
-0.037652
0.051632
0.082155
0.007407
-0.001136
0.004376
-0.059592
-0.075295
0.011342
-0.023076
0.040076
-0.005780
-0.053523
-0.059118
0.031577
0.051519
-0.065468
-0.048586
0.081245
-0.046787
0.033364
0.031363
-0.002425
-0.066101
-0.081234
-0.004306
-0.000065
-0.024076
-0.047752
-0.025553
-0.065583
0.000454
-0.021155
0.009456
-0.081310
-0.071656
-0.029904
-0.008093
-0.073953
0.006304
0.052851
-0.023532
-0.028642
-0.020474
-0.063091
-0.000228
0.048411
-0.001125
0.012059
-0.027512
-0.062048
-0.052541
-0.018534
-0.029674
-0.043226
-0.010679
-0.029896
-0.031069
0.014927
-0.011575
-0.078189
0.037899
-0.077732
-0.078361
-0.053256
-0.019794
0.072203
0.059515
0.024770
0.048946
0.006184
0.018585
-0.042267
-0.022070
-0.054117
-0.056985
-0.009219
0.041511
0.069302
0.034740
-0.070641
-0.001643
0.011477
0.035617
-0.074178
-0.003624
0.040483
0.044005
0.040522
-0.000645
0.076936
0.080862
0.012078
0.063911
0.075337
0.056152
0.027314
-0.021837
-0.022086
0.072568
-0.019072
-0.005818
0.076186
-0.033793
0.071800
0.082764
-0.023786
0.082061
0.055389
0.016645
-0.017393
-0.048116
0.070210
0.079732
-0.015347
0.070298
-0.050796
0.072357
0.069180
-0.028697
0.001926
-0.064204
-0.073339
0.046345
-0.019837
-0.023777
0.046179
-0.071043
0.023145
0.026797
-0.013320
0.068905
-0.068796
0.041940
-0.025744
-0.074253
0.045484
0.081424
-0.077302
0.081192
-0.082473
-0.008478
0.000994
0.021609
-0.033633
-0.013373
0.065928
-0.036622
-0.018987
0.068007
-0.040321
0.072601
0.065964
0.054537
-0.035946
0.082229
-0.054977
-0.073393
0.054613
-0.013091
0.024844
-0.006433
0.031213
-0.041511
0.034934
-0.047863
-0.058192
-0.058121
-0.027178
-0.077972
0.059163
-0.077299
-0.043931
0.002452
0.068196
-0.076498
-0.010635
0.008814
-0.081358
0.079640
-0.074011
0.062305
-0.044157
-0.044179
-0.046198
0.017801
0.020458
0.021936
-0.042884
-0.067427
0.053042
0.033063
0.005516
-0.043551
-0.076921
0.006524
0.021884
0.017591
0.009478
0.046506
-0.016564
0.030509
-0.011652
0.036058
0.036193
0.009512
0.049367
-0.058086
0.039331
0.042213
0.065722
0.019913
-0.056811
0.055758
-0.034067
-0.043545
0.012986
-0.074468
-0.045178
0.029778
-0.000429
0.056089
-0.012734
0.007635
-0.037828
-0.062272
-0.020197
0.037586
-0.061584
-0.075497
0.021881
-0.077776
0.035849
0.018725
0.065242
0.071257
0.057247
0.032233
-0.026936
0.013796
0.036318
-0.070884
0.068162
0.013988
-0.021928
-0.081807
0.027207
0.006485
-0.065864
0.013370
0.040299
0.062641
0.005095
-0.072338
-0.010493
0.069928
0.060348
-0.028010
0.024878
-0.076306
-0.069045
0.069575
-0.013175
0.063975
0.082500
-0.079409
0.051189
-0.027960
-0.057612
0.070260
0.008886
0.080140
0.064052
-0.070010
-0.010300
-0.078202
-0.079101
-0.050865
0.026315
-0.045235
-0.033586
0.034423
0.054306
-0.043188
0.005226
0.011399
0.064329
0.059809
0.036477
-0.019507
0.065730
0.019704
-0.065457
0.035442
0.039421
-0.041240
-0.056608
0.001997
0.056968
-0.039409
0.053939
0.045551
-0.005111
0.051442
0.067450
0.052799
0.061535
-0.049617
-0.045994
-0.044391
0.060672
0.046621
0.056810
0.027444
0.065805
-0.064737
0.064495
-0.064385
-0.037347
0.075514
0.063582
0.003806
0.062034
0.039881
-0.027135
0.026997
0.028767
-0.007729
-0.040446
0.000691
-0.003547
-0.027940
-0.038750
-0.033636
-0.044675
-0.069643
-0.078503
0.067103
-0.032585
-0.072124
-0.082031
-0.017144
-0.015839
0.025807
0.081457
-0.076560
-0.031307
-0.077632
0.028828
0.028681
-0.016828
-0.027166
-0.002833
-0.012066
-0.035329
-0.044120
-0.046729
0.014528
-0.007625
0.077617
-0.026327
-0.060912
0.082843
0.014515
-0.026813
-0.021061
0.066096
0.019001
0.060631
0.027716
-0.045045
-0.001207
-0.034851
-0.009674
0.076362
0.043609
-0.048314
0.013513
-0.062577
-0.046236
-0.057945
0.052625
-0.052508
-0.082641
0.077185
-0.069111
-0.018366
0.024313
-0.030599
-0.062556
-0.021511
0.020779
0.003448
0.047025
-0.028913
0.074184
-0.026479
0.004474
-0.038391
0.039243
0.078605
-0.022331
-0.023539
-0.073045
-0.010410
-0.047013
-0.035866
0.029809
-0.047204
-0.070338
0.001915
0.049857
0.014738
-0.047818
0.050587
0.010688
0.027109
0.055806
0.067653
0.050520
0.034477
0.071310
0.059024
0.043992
-0.012104
-0.025744
0.012260
-0.040626
-0.022204
-0.074885
-0.002398
0.070564
0.002437
-0.064211
-0.031313
-0.039436
-0.037409
-0.027845
0.050459
0.052278
-0.036563
-0.052019
0.002891
0.009011
-0.007384
0.008062
0.054078
0.072007
0.027867
0.059144
0.023004
-0.038308
-0.016152
0.023811
0.053464
0.079266
0.070010
-0.030464
-0.025207
-0.045053
-0.051077
0.044001
-0.053054
-0.065330
-0.069656
0.048386
-0.028939
0.076284
-0.029107
0.022378
0.036829
0.052730
0.035030
-0.058940
0.041867
-0.028108
0.015783
-0.039636
0.024052
-0.021102
-0.031376
-0.071816
-0.043697
-0.026905
-0.020175
0.011178
-0.064766
0.074551
-0.059870
-0.012032
0.054741
-0.006152
-0.013941
-0.075116
0.014906
0.016959
-0.013710
0.007774
0.043365
0.049055
-0.046995
0.047186
0.030317
0.025334
-0.033783
-0.005890
-0.015242
-0.047654
0.029411
-0.015062
0.046765
0.056465
-0.051606
0.062853
-0.065514
0.040404
-0.011723
-0.061164
0.034591
-0.020435
0.024694
-0.058713
0.079639
-0.042966
-0.081051
0.025154
0.002917
-0.065338
0.073485
-0.005137
-0.028672
0.056008
-0.041298
-0.038312
-0.048396
0.018662
-0.071659
-0.004678
-0.020994
0.051659
-0.054892
0.039653
0.015981
-0.030611
0.016273
-0.046274
-0.013960
0.050387
0.060623
-0.026459
0.035993
0.055427
-0.027614
-0.033348
0.017155
-0.007510
0.031231
-0.002851
-0.001313
0.076837
0.043767
-0.039610
-0.000297
0.061818
0.044871
-0.068136
0.072463
-0.008928
0.001021
0.057736
0.075010
0.031206
0.005078
0.055443
-0.036981
-0.068792
0.031317
-0.062207
0.028952
-0.039029
0.065199
-0.039554
-0.069374
-0.080604
0.082466
-0.000408
0.017525
0.038643
0.073656
0.030143
-0.077423
-0.034128
-0.049164
-0.016692
-0.007055
-0.025686
0.045992
0.057334
0.034628
0.057243
0.042423
-0.068933
0.014390
0.077568
0.019157
0.029221
-0.030831
-0.017939
-0.013536
0.068615
-0.015092
0.037157
-0.020014
0.015400
-0.063862
-0.036140
0.052396
0.073939
-0.011206
0.061195
-0.053913
0.082308
0.022472
-0.081697
-0.063694
0.018078
-0.058596
0.002613
-0.071187
0.035045
0.031021
-0.081801
-0.030572
0.051958
-0.022539
0.081256
-0.037212
-0.042569
-0.052958
0.065513
0.051055
0.001235
0.045152
-0.011634
-0.007926
0.051167
0.052642
0.031488
-0.041266
-0.059109
-0.059677
0.032842
-0.024322
-0.043405
-0.046762
-0.002906
-0.083287
0.003572
-0.038747
0.003218
-0.075590
0.028427
-0.069140
-0.045746
-0.018958
-0.006996
-0.032364
0.032827
0.049098
-0.047885
0.063575
0.005251
-0.011987
-0.052036
0.055844
-0.046982
0.071727
0.066007
-0.080787
-0.057280
0.028985
-0.018932
0.075218
-0.002512
-0.054891
-0.078768
-0.067879
-0.001084
0.083134
-0.047967
0.009562
-0.026302
-0.081262
0.060823
-0.022893
-0.007994
0.038381
-0.035295
0.040640
0.022696
0.037993
0.067294
-0.080682
-0.077052
0.024366
-0.067294
-0.059373
0.004637
-0.005334
-0.010509
-0.072815
0.070311
-0.056882
-0.020995
-0.061767
0.067564
-0.026103
0.081765
-0.071084
-0.078626
-0.003698
0.044600
0.012996
0.075974
-0.026659
0.020219
-0.034919
0.015330
-0.045315
0.037206
-0.057932
-0.067417
-0.001453
-0.051728
-0.007078
0.037026
0.064900
-0.022689
0.028036
0.071366
0.064693
-0.069998
0.059862
0.074453
0.042557
0.052045
-0.027639
-0.069327
0.041768
0.075460
-0.048784
-0.078163
-0.081463
0.029694
-0.051402
-0.043276
-0.054127
-0.061098
-0.007929
0.071749
0.044514
0.038003
-0.032313
0.072220
0.044860
-0.056974
0.060094
-0.064830
0.035200
0.009001
0.053910
0.071588
0.003913
0.054813
0.014637
-0.072510
0.079782
-0.034166
0.078422
-0.029177
-0.052901
-0.017612
-0.057769
0.058818
0.044079
-0.015845
0.033639
0.066902
-0.046546
0.047447
0.041523
-0.045283
-0.052086
-0.065935
0.011890
-0.067530
0.064817
0.001710
-0.014455
-0.078298
0.019957
-0.019029
-0.025226
0.041464
-0.041914
0.053219
0.079681
0.018864
0.077839
0.076874
-0.021193
0.065487
0.049012
-0.072269
0.040387
-0.073790
-0.008222
0.047763
0.078462
0.015424
-0.064705
0.015144
0.003494
0.063714
0.043325
-0.022216
-0.062158
-0.080261
-0.019757
0.018983
-0.028620
0.071126
-0.006079
0.058592
-0.066041
0.031893
0.030766
-0.057835
0.008760
0.055688
0.070811
0.023059
0.017911
-0.075471
0.072788
0.019622
-0.055983
0.000155
-0.026405
0.081613
0.028516
-0.014287
0.081777
0.036358
-0.038232
0.010951
0.005321
0.046282
-0.062476
-0.072631
-0.030719
0.022986
0.045067
0.070371
0.034886
0.003406
-0.071700
-0.048269
-0.044641
-0.076889
0.069024
-0.015645
-0.004452
-0.081005
0.010427
-0.063806
-0.065179
-0.037911
0.038012
0.005734
-0.025434
-0.062637
0.037938
0.062980
0.059830
-0.023897
-0.065555
-0.052432
-0.070009
-0.019932
0.068895
0.065728
-0.005202
0.016563
-0.070132
0.012512
-0.051645
0.020796
0.075374
0.047849
-0.027279
0.067419
-0.073783
0.033426
0.013170
0.031370
0.075386
-0.063297
-0.032584
0.050237
0.015112
-0.076915
-0.072790
-0.057627
0.034838
-0.030516
-0.082186
-0.039997
0.061487
0.015607
-0.066168
-0.066057
-0.022252
-0.075937
0.060132
0.013397
0.078431
-0.018404
0.019897
-0.040739
-0.032177
-0.048669
-0.005916
0.081234
0.078734
-0.054227
-0.026196
0.080042
0.052852
-0.000558
-0.012485
-0.057177
0.075153
0.023624
0.068955
0.003614
0.076344
-0.017582
0.019780
-0.040386
0.055360
-0.082765
0.001426
-0.080253
0.023372
-0.061948
-0.054780
-0.025046
-0.037019
-0.074898
-0.020075
-0.053274
0.069824
-0.004175
-0.015159
0.033841
-0.031999
0.068742
-0.030658
0.063138
-0.037569
-0.041943
-0.059729
-0.043566
-0.021732
-0.057895
-0.023827
-0.046064
0.005112
0.076294
0.048074
-0.043618
0.014603
-0.006647
-0.055926
0.018497
-0.065197
-0.026949
-0.002711
0.032017
0.025739
0.032345
0.004129
0.023917
0.030513
0.028827
0.065368
0.047049
-0.014449
-0.041780
0.047266
-0.008469
0.062619
-0.034152
0.037780
0.038177
-0.018868
0.073642
-0.065511
-0.012390
0.082856
0.050404
-0.031241
-0.042240
-0.040201
0.056391
0.064874
-0.024197
0.015191
0.076008
0.053768
-0.055077
-0.017405
-0.077999
-0.063467
0.034375
0.020654
0.034054
-0.006251
-0.026787
0.079817
-0.061135
-0.044652
-0.017222
-0.002022
-0.080566
-0.033806
-0.022608
-0.073664
0.009773
0.010729
0.043792
-0.049189
0.042882
0.067998
-0.046942
0.056629
0.078296
-0.057140
0.069191
0.001117
-0.063935
-0.031453
-0.076013
0.019203
-0.079959
-0.052794
-0.056160
0.027313
0.043047
-0.030373
-0.026547
0.069571
-0.037689
-0.035773
0.000847
-0.037879
-0.018036
0.037384
0.061628
0.048424
-0.068970
-0.067231
-0.076229
-0.058894
-0.052085
-0.065835
0.039087
-0.076004
-0.042564
-0.053631
-0.019251
0.048789
-0.023822
0.003038
-0.003673
-0.017971
-0.045553
-0.057774
-0.054809
0.063156
0.080722
-0.069852
0.002219
-0.057320
-0.030262
0.013789
0.043113
0.003595
0.002948
-0.063493
0.008032
-0.063309
0.044803
0.004305
-0.035814
0.075448
-0.023309
0.032774
-0.045942
-0.056286
0.027372
0.043423
0.037811
0.067656
0.082681
-0.079312
-0.017239
-0.019747
-0.030706
-0.026973
-0.027202
0.075353
-0.027040
-0.034940
-0.014196
-0.011672
0.055991
0.062620
-0.000610
0.025448
0.080337
-0.075690
0.027339
0.055342
-0.036269
0.055073
0.056169
-0.060476
0.081875
-0.014858
0.075510
0.072313
-0.011921
-0.073158
-0.018874
-0.058796
-0.015973
0.075769
-0.051019
0.058386
-0.066546
0.029323
0.056803
-0.059102
-0.048981
-0.071131
0.066309
0.053215
-0.050400
-0.011700
0.079302
0.029010
-0.014442
0.056902
0.000987
-0.068952
-0.074849
0.074039
0.066056
0.055065
-0.014766
0.070820
-0.070188
-0.083051
-0.034246
0.066918
-0.002080
0.013699
-0.065018
0.074927
-0.082787
-0.076300
0.036000
-0.036658
-0.018652
0.046186
0.012238
-0.017571
0.003537
-0.055191
0.023653
-0.052287
-0.047720
0.024973
0.001354
0.027698
-0.073037
0.038353
-0.036963
0.024529
0.002842
-0.050181
0.001359
-0.047840
-0.054326
0.044099
0.047659
-0.019902
0.035622
0.067215
0.073537
0.058867
0.022660
-0.014112
-0.038747
-0.004336
-0.047226
0.069330
-0.032699
-0.073089
-0.035968
0.017896
-0.049859
0.019035
0.045227
0.059235
-0.017383
-0.016304
0.080583
0.076864
0.013749
0.077252
-0.066206
0.034709
-0.059023
-0.077554
-0.026285
0.062798
0.064528
0.012804
0.072996
0.032161
-0.046829
0.073675
0.069081
-0.022792
-0.051471
-0.025080
0.044481
-0.010817
-0.064831
0.035036
0.065200
-0.003090
0.040541
-0.045929
-0.067527
0.025466
0.081619
0.016399
-0.033993
-0.023121
-0.061062
-0.019342
-0.054485
-0.078142
-0.032579
-0.041330
-0.042374
0.010626
0.036407
-0.054852
-0.028309
0.077920
0.054363
-0.002648
0.073474
-0.012603
-0.008205
0.019754
0.020438
0.057898
0.042332
0.067137
0.051254
0.063828
0.074497
0.039771
-0.028554
-0.021651
-0.077716
-0.058705
0.030985
-0.054948
0.016284
-0.058214
-0.028951
-0.002944
-0.060241
0.078805
0.075698
-0.039700
-0.011877
-0.034093
-0.063808
-0.053882
-0.067040
0.050609
-0.019162
-0.013854
-0.081219
0.000628
-0.065847
0.063925
-0.073582
-0.056991
0.009020
-0.016590
0.000107
0.014425
0.078272
0.027767
-0.043337
-0.022138
0.058872
-0.067363
0.016743
-0.075747
0.031051
-0.014083
-0.061029
-0.082384
0.069836
0.012996
0.079924
-0.060250
-0.073927
-0.017448
-0.077345
-0.061714
-0.012649
0.069735
0.056248
-0.069472
-0.024291
-0.018629
-0.078225
-0.032888
0.002224
-0.054791
0.042890
-0.035338
0.043607
-0.046156
-0.025179
0.078205
0.056565
0.002371
0.069688
-0.033201
-0.043383
-0.078262
-0.013093
0.036997
-0.053711
0.003126
-0.002692
0.068851
0.001655
-0.052061
0.008961
0.006189
0.036869
-0.069066
0.027783
0.071421
0.021605
0.040767
-0.028667
-0.040638
-0.024817
0.071910
-0.044810
-0.037497
-0.076134
-0.065160
0.049484
0.009732
-0.061561
0.079935
0.037567
-0.003927
0.024348
0.048374
-0.058908
0.037446
-0.038932
0.067934
0.057162
-0.006977
0.075540
0.053820
-0.030133
-0.010547
0.060636
0.074713
0.010924
-0.045149
-0.057291
0.079408
-0.070485
-0.072244
-0.059724
0.024042
0.067392
0.045971
0.046577
-0.056039
-0.033219
-0.023723
-0.010207
0.039206
-0.077558
-0.037458
-0.081662
-0.018246
-0.060806
-0.017336
-0.036584
0.054368
-0.052479
0.025978
-0.016574
-0.064354
-0.002697
-0.081675
-0.036965
0.062208
0.081289
-0.061489
-0.045172
-0.009091
0.042434
0.000573
-0.037343
0.006377
0.027409
0.051727
0.006697
0.014767
-0.065671
-0.081703
0.060007
0.041935
0.011090
-0.022867
-0.011264
-0.012552
-0.031064
0.059593
0.039659
0.003060
-0.023443
-0.073882
-0.021635
0.010127
0.074393
0.070267
0.020306
-0.050390
-0.032447
-0.063717
0.024612
-0.047256
0.011117
0.061241
0.003960
-0.007253
-0.076246
0.078280
0.045817
-0.056061
-0.047200
0.055205
-0.041469
-0.060073
0.041912
0.037811
-0.003555
0.056466
0.000790
-0.004180
-0.042205
-0.004559
0.002471
-0.005625
-0.039691
-0.053766
-0.012785
-0.037265
-0.007541
-0.037257
-0.025886
0.044876
-0.081356
-0.080841
-0.072115
-0.025911
-0.050762
0.038443
0.001237
-0.048030
0.048881
-0.080673
-0.070069
-0.072657
-0.070069
0.016622
-0.018201
0.077350
-0.039957
0.082096
-0.075230
0.057298
0.006660
0.082738
-0.020144
0.054306
0.000985
0.058136
0.015958
-0.076593
0.005009
0.040890
0.080782
0.025352
-0.037566
-0.041734
0.010674
0.036014
-0.001022
0.078041
-0.044359
-0.001941
0.064129
-0.065544
-0.045125
-0.024807
-0.063430
0.059388
0.022155
0.024714
-0.031342
0.018997
0.026945
-0.080614
-0.025007
0.064070
-0.054682
-0.066125
-0.077780
-0.047780
-0.074350
0.002551
0.056034
-0.000066
0.068482
0.051605
-0.031304
0.005533
0.055606
0.019545
-0.033560
0.028102
-0.041514
-0.016444
0.006661
0.012240
-0.030892
0.017888
-0.041011
0.017421
0.070464
0.022413
-0.058575
0.008033
-0.012963
-0.053941
0.042171
-0.018613
-0.027070
0.078280
-0.079915
0.064131
0.011501
-0.014407
0.067143
0.013528
0.014363
0.063178
-0.057750
-0.063766
0.079541
-0.037442
-0.019375
0.081723
-0.078793
0.071217
0.033834
-0.023919
0.026577
-0.064814
-0.066379
-0.040948
0.079241
-0.047353
-0.045826
-0.054249
0.070224
0.007106
0.016344
-0.035998
0.024549
0.059788
0.042544
0.017483
0.055777
-0.040894
0.030431
0.063701
0.035197
0.018336
0.005021
-0.001118
0.000219
-0.014211
-0.073063
-0.026054
0.026746
0.045154
0.077097
0.068946
0.005650
-0.021512
0.044943
0.074686
0.027814
-0.054646
-0.026013
-0.023029
0.058988
0.017965
-0.020033
-0.071056
0.033139
0.011063
-0.023747
0.011072
0.009676
0.023466
-0.069366
-0.044209
-0.025942
-0.052973
-0.014943
0.045446
-0.069037
-0.068453
-0.067808
0.040980
0.004467
-0.001735
-0.044875
0.066886
-0.040911
0.004996
0.065774
0.075124
-0.040227
-0.025826
-0.050246
-0.068822
-0.079299
0.010612
-0.050513
-0.031198
-0.063264
0.004499
-0.061386
-0.042549
-0.003480
0.021228
-0.039378
0.039875
0.037521
-0.029450
0.019723
-0.073456
-0.059332
-0.070116
0.022594
0.078295
0.048967
0.044363
-0.004693
0.051476
-0.033109
-0.050908
-0.046834
0.034358
-0.044844
0.004111
0.066487
-0.081616
-0.014306
-0.032245
0.039196
-0.001985
-0.017280
-0.047837
-0.073781
-0.048826
0.023201
-0.055303
-0.007241
-0.058612
-0.053092
-0.039664
0.082690
-0.016249
0.064466
0.062003
-0.055614
-0.050056
-0.044648
0.058966
0.026436
0.004201
0.004604
0.055569
-0.057706
-0.048762
0.008268
-0.056653
0.051494
0.057323
0.048833
0.009609
0.083075
0.067444
0.041631
-0.034233
0.073239
0.054291
0.012078
0.070292
-0.027221
-0.013847
0.020056
0.065492
0.019887
0.078546
-0.076913
0.000423
0.067310
0.057337
0.008594
0.022148
-0.048828
0.079738
-0.004257
-0.012263
0.032814
0.058177
-0.004941
-0.027479
-0.082746
-0.071903
0.020655
-0.017071
0.001604
-0.005380
0.038751
0.035064
0.083161
0.014040
-0.000478
0.049226
-0.068858
-0.082344
-0.014185
0.013129
0.029237
-0.006512
-0.056792
-0.021601
-0.024343
0.053408
-0.015698
0.076641
0.075410
-0.053516
-0.037807
-0.006659
0.035051
-0.021356
-0.009569
0.019677
0.052474
-0.065266
-0.054358
-0.051064
0.070385
0.013827
0.059713
0.041549
-0.003612
0.038415
0.058459
-0.055986
0.007803
-0.048594
-0.066243
-0.061883
0.024138
0.018662
-0.063748
0.056449
-0.018131
-0.022798
-0.060974
-0.079404
-0.009127
0.029677
-0.050785
-0.076742
0.055656
0.057913
-0.042606
-0.038396
-0.024327
0.014995
-0.066584
0.077597
-0.038513
0.022062
0.020384
-0.043409
0.024637
-0.069928
0.047298
-0.004650
-0.082591
0.014629
-0.049257
0.000555
-0.055142
0.005988
-0.006345
-0.062808
0.053980
-0.063361
0.045196
-0.019919
0.054248
-0.052417
-0.044545
-0.080061
0.076835
0.074593
-0.015948
0.083121
-0.071306
-0.031279
-0.037199
0.016251
-0.033808
0.076117
0.028927
0.033727
0.041319
-0.026422
-0.054147
0.066761
0.025961
0.045779
0.043094
-0.069874
0.000273
-0.030925
-0.008500
-0.079606
-0.033938
0.010410
-0.002799
0.001248
-0.065049
-0.054549
-0.016226
-0.010283
-0.037800
0.025770
-0.015766
-0.075899
0.069561
-0.000817
-0.016077
-0.016966
-0.037163
-0.052745
0.055228
-0.072407
-0.007683
-0.040385
-0.009031
-0.068121
0.055519
0.080345
0.019023
-0.075732
0.009402
0.029751
0.041262
0.052488
-0.051382
-0.025439
0.009811
0.045809
-0.074629
-0.065500
-0.039624
-0.083233
-0.012437
0.018387
0.015758
-0.047412
-0.000377
-0.013016
0.013190
-0.008389
0.077370
-0.011443
0.055749
-0.037946
0.052262
0.074973
-0.037649
-0.031936
0.017286
0.043823
-0.072481
0.037412
-0.003748
0.068987
-0.011769
-0.081580
-0.065017
0.026923
0.006323
0.053450
0.030526
-0.083007
-0.033441
-0.015870
-0.069692
-0.066400
-0.053850
-0.011169
0.014899
-0.025662
-0.002739
-0.048597
0.051310
0.072740
-0.081523
-0.019396
0.007972
-0.051062
0.030645
0.022571
-0.063462
0.077716
0.046244
0.021717
0.080509
0.023060
0.062285
0.024631
-0.034149
-0.072088
0.076193
0.073600
-0.036570
0.065499
0.044012
0.018365
-0.018748
-0.015537
-0.041647
-0.046467
-0.031185
0.060533
-0.033550
-0.054785
0.060351
-0.064896
-0.013672
0.056857
-0.064328
-0.039651
-0.083100
-0.058048
0.024705
-0.080019
-0.078377
-0.034714
-0.038686
0.030487
-0.072093
0.004604
0.057284
-0.041196
-0.043101
-0.034780
-0.070561
-0.041531
0.023030
-0.082418
-0.063768
-0.001399
-0.049532
0.043204
0.049328
0.040227
-0.019402
-0.047614
0.032648
0.036669
0.073347
0.065686
0.032597
-0.000996
0.059173
0.078138
-0.034745
0.045281
-0.014736
-0.001400
-0.039556
-0.009522
-0.066107
-0.059772
-0.078243
0.063335
-0.004421
-0.043381
-0.057217
0.015553
-0.078527
0.045410
-0.080449
0.004373
0.052350
-0.045722
0.025106
0.044680
-0.035219
0.023799
-0.029145
-0.044297
-0.059794
0.046784
-0.045748
0.017269
0.035625
-0.046105
0.067632
-0.021230
0.039134
0.076494
0.011175
-0.020247
0.077313
0.023749
0.036305
0.052265
0.047070
0.043617
-0.031047
-0.012479
-0.025707
-0.050498
-0.033094
-0.000765
-0.016787
-0.022286
0.051643
0.060112
0.055482
-0.055853
-0.015696
0.012849
-0.021412
-0.023599
-0.076876
0.042104
0.076063
-0.006707
0.034444
0.001964
0.067329
0.035445
0.055367
0.039532
-0.001768
-0.049789
0.005951
-0.011407
0.062581
-0.038847
0.044197
-0.057647
0.075095
-0.054124
-0.056295
-0.014791
0.022661
-0.068137
0.014028
-0.077615
0.082047
0.071705
-0.015084
-0.049798
-0.038427
-0.056580
-0.016873
0.030987
-0.038732
0.029008
0.012551
-0.079462
0.069416
-0.032209
0.063975
-0.076017
0.021845
0.083015
-0.037654
0.038396
-0.006940
0.032695
-0.038432
0.050568
-0.015314
-0.004224
-0.015227
-0.028281
0.030101
0.060388
0.058049
-0.050539
-0.074744
-0.043124
0.006620
0.059558
0.040253
0.009242
-0.007710
0.073600
-0.040977
-0.076268
0.005965
-0.075803
0.077696
0.024077
-0.064177
-0.005433
0.025253
0.000054
-0.032195
-0.058654
0.038802
-0.072796
0.023469
-0.055384
0.067904
0.035378
0.078755
-0.013916
-0.062273
0.080109
0.026386
0.077098
-0.020258
-0.060171
-0.071583
-0.059171
-0.063010
0.005431
-0.047084
0.052777
-0.050390
0.042333
-0.029581
0.026222
-0.017918
0.010680
-0.052790
-0.077254
0.050824
-0.082264
0.031934
0.043590
0.040750
0.068076
0.027289
0.021085
-0.052618
-0.057971
0.073854
-0.064804
-0.023899
-0.067521
0.033091
-0.074845
-0.004274
-0.061423
0.048796
0.074406
0.033809
0.020630
0.060291
0.069629
-0.054962
-0.015956
-0.029346
-0.053288
0.074274
0.072424
0.052594
-0.059955
-0.052073
0.025996
-0.053572
0.019410
-0.047938
-0.083265
0.072703
0.018534
0.017229
-0.002768
0.045188
0.026556
-0.066017
-0.037312
0.018637
0.046628
0.014807
-0.040133
-0.079969
0.073590
-0.044233
0.060508
0.002148
0.067530
-0.006398
0.054574
-0.042014
-0.031572
0.054390
0.057369
-0.031798
-0.037488
0.063567
0.018567
-0.015418
-0.033059
-0.002612
0.080101
-0.011695
-0.068006
0.012998
-0.075092
0.011094
0.062681
0.083028
-0.057785
0.007696
0.007126
0.072748
0.034580
-0.057125
-0.028760
-0.069178
0.048643
0.019558
0.000749
0.047736
0.074382
0.017471
0.019467
-0.081236
0.074131
0.006151
-0.014804
0.004914
0.038295
-0.031943
0.057257
-0.006211
-0.040464
-0.080344
0.046647
0.080043
-0.055128
0.064940
0.074904
0.045989
0.047528
-0.018620
-0.067060
0.012665
-0.044905
0.078764
0.066601
0.052803
0.018024
0.014042
0.016303
-0.038410
-0.037410
-0.033932
-0.015439
-0.006614
-0.026109
-0.049613
0.001991
-0.029391
0.017535
0.074233
0.021500
-0.017648
-0.066749
0.047821
-0.013815
-0.010010
0.072128
-0.008629
-0.067507
-0.026817
0.062963
0.035107
0.029067
-0.006987
-0.081857
-0.067876
-0.056643
0.003356
0.060386
-0.042596
0.037396
-0.043632
0.006678
-0.074342
0.044163
0.080691
-0.047575
-0.007265
0.067412
0.075194
0.036242
0.000443
0.005596
0.017044
0.057888
0.049778
-0.011484
-0.013041
0.021285
-0.030448
0.056806
0.033042
-0.083209
0.077668
0.071696
-0.002191
0.001925
-0.006016
0.009638
-0.053621
0.026741
0.074624
-0.013092
-0.000720
-0.067507
-0.010602
0.008797
0.031753
-0.016008
0.037164
-0.080871
-0.009169
-0.022385
0.044614
-0.042696
-0.011365
-0.034563
-0.000769
-0.027097
0.073068
0.034079
-0.037952
-0.041431
0.073763
0.018992
-0.072711
-0.056621
-0.036084
0.027758
0.062848
-0.036378
0.044192
-0.020167
-0.036191
0.053660
-0.068514
-0.029533
0.005869
-0.049765
-0.043405
0.051269
-0.063688
0.067618
-0.036021
-0.013568
0.066076
0.027400
0.055558
-0.073139
-0.075360
-0.025014
-0.061847
-0.058455
0.065355
-0.074806
-0.080473
-0.059750
0.069392
-0.011483
0.037333
0.055866
-0.053499
0.054804
0.011807
0.020918
-0.014397
0.048552
-0.005156
0.017144
0.067812
-0.022421
0.073513
0.032856
-0.065853
-0.040536
0.012260
0.029235
-0.059481
-0.080042
0.074049
-0.037510
0.080886
0.012800
0.027084
-0.021010
0.055618
0.075302
-0.006346
-0.062809
0.007905
-0.021557
-0.033073
-0.024618
-0.079108
0.052801
-0.053117
0.080441
-0.073497
-0.022733
-0.003108
-0.055563
-0.029995
-0.009048
0.062188
-0.010751
-0.002105
-0.005571
-0.026452
-0.058902
-0.051802
-0.049006
0.066628
-0.057402
0.014404
-0.058013
-0.076012
0.008460
-0.013858
0.081864
0.015258
-0.001405
0.080213
-0.024830
-0.053222
0.078837
-0.052731
0.060776
-0.024165
-0.032707
-0.035365
0.016634
0.004503
-0.047435
0.016417
0.056967
0.059465
-0.072474
0.029880
-0.015762
-0.015217
0.075843
0.028016
0.076352
0.055742
0.006491
-0.080499
0.057889
0.068392
-0.044356
0.082168
0.038386
0.049669
-0.052917
0.082425
-0.050535
-0.070459
-0.030934
-0.058994
0.073544
0.074676
0.024488
-0.025971
0.046315
0.075692
-0.068174
-0.007204
-0.060212
0.032062
0.072465
0.061533
-0.012760
-0.039015
0.015362
-0.008703
-0.058929
-0.050620
0.081914
-0.001742
-0.055255
-0.022302
0.007138
-0.014162
0.046077
0.039918
0.060084
0.075276
0.035127
-0.020319
0.018537
0.053240
0.082280
0.056272
-0.064104
0.029785
0.041956
0.048545
-0.055989
0.035537
-0.075537
0.009134
-0.002403
-0.067846
-0.067922
-0.000751
-0.016046
0.049259
0.059713
0.080660
0.071270
0.023947
-0.043972
-0.007550
-0.008559
-0.021939
0.033846
-0.073039
0.046722
0.068064
0.022629
0.067571
0.048818
-0.019836
-0.047982
-0.044592
0.051020
-0.006886
-0.023283
0.022373
-0.060151
0.008541
-0.050056
-0.068861
-0.076999
0.041954
0.050577
0.017245
0.072514
-0.056373
-0.049738
-0.015440
-0.045228
-0.069193
0.018462
0.009280
-0.030353
-0.009352
0.012197
0.021677
-0.062799
0.003689
0.068261
-0.039444
0.007430
-0.061121
-0.033525
0.008184
-0.005580
0.010011
-0.031870
-0.028068
0.050621
-0.082133
0.075188
0.028165
-0.070336
0.031567
0.073860
-0.059334
0.052130
-0.005587
0.052382
0.069197
0.001062
0.011120
-0.024290
0.053416
0.039130
-0.051359
-0.033549
0.019815
0.016698
-0.073644
0.006602
-0.009015
-0.080137
0.050073
-0.004745
-0.043919
0.009555
0.034854
0.033902
0.036789
-0.045244
-0.074456
-0.049226
-0.055292
-0.075403
-0.054439
0.015789
0.081926
0.008316
0.032494
0.081469
0.037165
-0.078747
0.024155
-0.047508
-0.061867
0.014167
-0.079394
-0.072122
0.072739
0.056895
0.058889
-0.030119
-0.040957
-0.021253
0.045759
0.058787
-0.019202
-0.070581
0.030043
-0.029294
-0.081996
-0.047884
-0.073335
0.050784
-0.073609
0.069550
0.055485
0.064817
-0.018064
0.063068
0.002048
-0.081220
-0.078263
0.003762
-0.072839
0.050892
0.061180
-0.065029
-0.055173
-0.054626
0.016031
-0.045053
0.011851
0.066476
-0.021977
0.083124
0.020311
-0.020849
-0.056553
0.064915
-0.076959
-0.075025
-0.032180
0.030192
0.028678
-0.015482
-0.019564
0.012730
-0.017569
-0.025124
0.033140
0.026721
-0.076348
0.081794
0.030717
0.018872
-0.000437
0.016208
-0.023155
-0.054976
-0.022714
0.065238
-0.075075
0.064086
-0.043763
0.061339
-0.057558
-0.051984
0.039453
0.036790
-0.072479
0.043005
0.048497
0.021085
-0.054464
0.019190
0.075314
-0.074179
0.010689
-0.029789
0.009604
0.050975
-0.033475
-0.065940
0.033767
0.011518
-0.077158
0.008752
0.063946
0.001663
0.015600
-0.045550
-0.072519
-0.055820
0.069870
0.066825
0.065160
0.065244
-0.011476
-0.035161
0.058282
0.032197
-0.082725
0.023249
0.011037
0.017400
0.041632
-0.024720
-0.029764
-0.008316
0.048584
-0.075378
-0.008420
-0.007162
-0.044257
0.005759
0.018568
0.075354
0.055908
-0.000855
0.021319
0.067712
-0.062393
0.011424
0.046531
