-0.054875
0.091078
0.015882
0.136268
-0.113876
0.061873
-0.077216
0.017985
-0.137105
0.065461
0.150216
-0.028756
0.152847
0.063194
-0.166900
0.048669
0.154472
-0.108826
0.060315
0.112373
-0.004219
-0.055620
0.027212
0.134577
0.160865
0.005751
-0.087878
0.000762
0.080343
-0.159913
0.048941
0.058750
-0.167395
-0.175116
0.137583
0.079067
-0.020171
-0.060393
0.058132
-0.097162
0.022846
-0.084747
0.020478
0.069436
-0.017873
-0.151056
0.061765
-0.161705
-0.010286
0.136573
-0.086018
0.162581
-0.132725
-0.002005
-0.130785
0.081879
-0.066384
-0.029584
0.176206
-0.032918
-0.063951
-0.136941
0.086710
0.102841
-0.057663
-0.146893
-0.149753
0.126889
0.042063
0.049615
0.167449
0.088935
0.037594
0.004271
-0.140289
0.044030
0.107372
-0.084673
-0.127040
0.040293
0.058608
-0.132126
-0.023240
-0.101918
0.070744
-0.013833
0.016711
-0.125524
-0.087906
0.044328
-0.016508
0.148605
0.008644
-0.072696
0.035304
-0.076730
-0.020655
-0.030522
-0.011785
-0.003621
-0.047305
0.168347
0.020056
-0.148502
-0.009704
-0.023331
-0.105378
-0.094973
-0.130535
-0.083147
-0.109823
0.030122
-0.030110
-0.068375
0.062838
-0.089603
-0.092666
0.016451
-0.167333
-0.054979
0.002755
0.140560
-0.080908
-0.092055
-0.151987
0.162139
0.142485
-0.001452
-0.066029
0.092884
-0.088782
-0.095036
0.006825
0.152876
0.112929
0.049180
-0.166234
0.141347
-0.023062
-0.152518
-0.135034
0.009498
-0.143045
0.060628
0.014566
-0.076300
-0.121551
0.084041
0.174497
0.107278
-0.057336
-0.133009
-0.102297
-0.108906
-0.122399
0.161243
0.118839
0.084344
-0.011370
-0.111892
0.160065
-0.109807
-0.026054
0.170673
0.117756
0.165111
0.111692
-0.157022
-0.100377
0.166317
0.035266
0.049326
0.144573
0.082800
0.102548
0.096821
-0.025039
0.000050
-0.039382
0.010865
0.018743
0.121709
0.020229
-0.024626
-0.033493
0.157474
0.053716
-0.168046
-0.129042
-0.038331
-0.021124
0.125697
0.157509
-0.043971
-0.068018
-0.171318
0.023538
-0.058265
-0.095164
0.068193
0.115564
-0.106853
-0.170417
-0.175118
-0.052788
-0.116227
-0.050853
0.163332
0.068527
-0.166820
-0.016082
-0.092599
0.162501
0.112765
0.158914
-0.012201
-0.142992
-0.040940
0.137697
0.074244
0.142391
-0.149462
-0.082934
0.015341
0.018810
-0.042617
-0.038102
-0.136605
-0.028024
0.115447
-0.159814
0.147823
0.101101
-0.079809
-0.029879
0.056087
-0.025203
-0.140391
-0.012855
-0.103161
0.100371
-0.132849
0.152826
-0.116919
0.103339
0.098361
0.173183
0.163082
0.169963
-0.121075
0.041221
-0.042771
0.102152
-0.031050
0.136598
-0.012139
-0.143905
-0.051815
0.086183
-0.158897
0.024943
0.141116
-0.072692
0.071298
-0.084947
0.008305
-0.113614
-0.149004
0.040601
-0.079108
-0.052541
0.152863
-0.050897
-0.117783
-0.068476
0.054173
0.036636
-0.039343
0.140955
-0.078590
0.019199
-0.097302
0.065911
-0.143950
-0.096217
-0.017301
-0.074333
0.109426
-0.016809
0.023766
0.127076
-0.001819
-0.032814
-0.093443
0.015769
0.019260
-0.132837
-0.085031
0.111834
-0.156186
0.116834
0.160186
-0.067688
0.066418
0.017452
0.097653
0.066224
0.057646
0.006927
-0.117160
0.136586
-0.152738
0.129179
0.126497
-0.111222
0.102233
0.104814
-0.172853
-0.077096
-0.024663
-0.014988
0.080814
0.136699
0.156195
0.044146
-0.171089
-0.105611
0.163275
0.109141
0.027123
-0.153528
-0.132206
-0.011996
0.092369
0.072819
-0.007220
0.085572
-0.042141
0.036933
0.025966
-0.128535
-0.097147
-0.072924
-0.135129
-0.094106
-0.116242
0.131889
-0.011117
0.031055
-0.035902
-0.149051
0.011567
0.130460
0.064992
0.142184
-0.131469
-0.075156
0.026402
0.118564
0.024108
-0.148295
-0.088495
0.056425
-0.062342
-0.041876
-0.064923
-0.115153
0.102759
0.071665
-0.049481
0.012658
0.036319
0.039949
-0.033710
0.063380
-0.119451
-0.120568
0.008143
0.005195
-0.014386
0.107223
-0.136614
-0.127644
0.054807
-0.140308
-0.033675
-0.122101
-0.008895
0.074165
0.078947
0.153989
-0.093817
0.118993
-0.060163
0.152550
-0.073749
-0.088702
0.056609
-0.016152
0.117928
0.030631
-0.104865
0.070142
-0.061747
0.057996
0.173058
0.040344
0.004627
-0.036932
0.006794
-0.063503
-0.174046
-0.047835
0.021625
0.165093
0.016075
-0.028317
-0.120000
0.139670
0.085356
-0.155953
0.171197
0.063584
-0.137617
0.045250
0.025641
0.081732
0.087590
0.057229
-0.124397
-0.029113
0.019058
-0.140923
0.148055
0.110206
-0.176431
-0.115116
0.114081
-0.156051
-0.116627
0.130096
0.145926
-0.053398
-0.155653
-0.061901
0.144352
-0.098301
-0.045391
0.137014
0.079303
-0.053058
-0.132443
-0.034082
0.131508
0.060214
-0.034694
-0.148818
-0.115329
0.058943
-0.035260
-0.004106
0.025118
-0.028032
-0.173006
0.166723
-0.122535
0.152292
0.104136
0.141532
-0.132487
-0.077813
-0.096839
0.084644
-0.025767
0.016090
-0.172732
-0.142410
0.146784
0.071429
0.102703
-0.105025
-0.137883
-0.152835
-0.050561
0.054945
0.165592
0.130040
-0.161128
-0.066390
0.068681
0.073873
-0.021742
0.047336
0.175790
0.030845
0.033756
-0.067859
-0.077709
0.139939
0.010130
0.012889
-0.143424
0.002945
-0.060290
0.036175
-0.078865
-0.122434
-0.035678
-0.043861
0.009793
0.073785
-0.150218
0.046217
0.104639
0.163939
-0.115640
-0.110250
0.006322
-0.124219
0.079706
0.042982
0.059884
-0.002847
0.169915
0.069681
0.149671
-0.113327
-0.139799
-0.159919
-0.062563
-0.116117
0.033130
0.115465
-0.087160
-0.074598
0.137377
0.153678
0.087765
-0.175784
-0.136769
-0.121242
0.078102
-0.104187
0.050955
0.161763
-0.046179
0.170606
-0.076726
-0.093317
0.145308
-0.103876
0.114871
-0.106262
-0.138882
-0.095065
-0.148646
-0.029561
0.077122
-0.019209
-0.082407
0.082031
0.110615
0.101504
-0.030895
0.112834
-0.152199
-0.166795
-0.111236
0.088263
0.059989
0.004379
0.101983
-0.170805
0.032997
0.070002
-0.114990
0.113751
0.047651
0.023502
-0.011918
-0.085721
0.052270
-0.120876
0.110086
-0.167570
-0.088933
-0.156376
0.064427
-0.110568
0.078360
-0.093315
-0.164085
0.102241
-0.086769
0.173929
0.086253
-0.131390
0.174201
0.106708
0.048904
0.160431
-0.112293
0.112736
0.084021
0.042697
0.062715
0.078339
-0.086446
0.166820
-0.151646
-0.024073
-0.133734
-0.027680
-0.112388
-0.011868
-0.109547
-0.161301
0.116155
-0.097365
-0.170937
0.133402
0.133019
-0.106667
0.090835
-0.147073
0.163371
0.155087
-0.138117
-0.073810
0.116817
-0.096708
-0.022633
-0.009429
-0.134013
-0.090602
-0.101314
-0.172584
-0.053136
-0.124511
-0.170936
-0.017477
-0.000289
-0.148785
0.174923
0.042451
-0.137478
-0.112276
-0.011144
-0.063716
-0.080218
0.119579
0.079457
-0.050824
-0.111325
-0.157052
0.058966
-0.123255
-0.129680
-0.158626
0.111641
0.070912
0.098732
-0.160068
-0.162575
-0.072080
-0.007231
-0.084386
-0.035478
0.032558
-0.035328
0.034401
0.026731
-0.121909
0.016165
0.129400
0.116967
-0.048538
-0.060681
0.102281
0.153506
-0.076840
-0.067896
0.078703
0.038788
0.097991
-0.168472
-0.154363
0.039215
-0.040443
0.137093
-0.104630
0.012955
-0.008340
0.061047
0.033718
-0.153323
-0.051403
0.117757
0.149912
-0.140381
-0.150710
0.030311
-0.094645
0.007278
0.103769
-0.016111
0.052412
-0.137931
0.101194
-0.100790
-0.001653
0.001537
-0.020896
0.146544
-0.053030
0.120272
-0.093505
0.166564
0.059578
0.151019
0.040010
-0.156767
0.134613
-0.093829
0.011668
0.089193
-0.024847
0.172667
-0.129267
-0.016035
-0.151145
-0.040949
-0.073897
0.083000
-0.152283
0.012974
0.152618
0.038295
0.166334
-0.046224
0.045626
-0.030504
-0.117218
-0.154180
0.067621
-0.095666
-0.140909
0.070567
-0.019962
0.072896
0.134556
0.090756
0.025958
-0.000887
0.135919
0.005551
0.041165
0.052699
-0.155865
-0.089014
0.109457
-0.032895
0.090106
-0.040245
0.038621
-0.117657
-0.065828
-0.102454
-0.019083
-0.096887
-0.165325
-0.131636
-0.076889
0.020680
-0.046947
-0.143294
-0.122136
0.055491
0.175913
-0.082507
-0.169906
0.033189
-0.048762
0.028895
-0.155733
-0.014075
-0.169886
-0.133410
-0.117001
-0.146503
-0.164369
0.099502
0.056112
0.142988
-0.154260
-0.025220
-0.063664
0.015590
0.169341
-0.113514
-0.085986
0.086868
-0.075292
-0.152479
-0.162676
-0.084760
-0.124507
-0.168172
0.169687
-0.149369
0.124827
-0.049827
0.143544
0.016557
0.114638
0.035903
-0.103851
0.151313
-0.132009
0.005225
0.055209
0.076045
-0.158006
-0.073099
-0.085959
-0.007468
-0.071790
0.092079
0.045339
-0.003334
0.163002
0.017847
0.101249
-0.137027
0.114336
-0.052020
0.074571
0.135724
0.049411
0.169422
-0.136468
-0.070691
-0.055950
0.098235
-0.005892
-0.157339
0.101538
-0.087135
0.098258
0.087952
-0.134257
-0.147151
-0.027299
-0.054585
-0.029003
0.143715
0.162891
-0.069400
-0.069144
0.034518
0.036557
0.090914
-0.111256
0.060618
-0.128387
-0.109702
-0.123932
0.009344
-0.013529
-0.060051
-0.141285
-0.019201
0.045406
-0.076131
-0.073232
-0.026474
0.142128
0.137471
-0.021378
0.032647
0.029646
-0.003138
-0.142531
-0.158609
0.087408
-0.061346
0.025214
0.012557
0.120353
0.146523
-0.065427
-0.138013
0.166365
0.025918
0.174666
-0.000443
0.111853
0.103854
0.112232
-0.153381
0.139393
0.147789
0.119824
-0.000322
-0.025153
-0.167160
0.026459
-0.036876
0.064477
-0.105327
-0.091834
-0.008406
-0.130703
0.072203
0.058908
0.085126
-0.028168
-0.081965
-0.125852
-0.151097
-0.122155
-0.145188
-0.135570
-0.036087
0.043755
0.098023
-0.011112
0.001820
-0.013308
0.076514
-0.028302
-0.059212
0.086649
-0.171190
0.125381
0.046864
-0.022572
0.151746
0.117515
0.165399
0.007154
0.156626
0.082897
-0.086052
0.156696
-0.118029
0.164257
0.087731
-0.059603
0.018392
-0.002367
0.174734
-0.064966
-0.108311
0.163768
0.149246
0.167222
0.102288
-0.061494
0.114555
